digraph Tree {
node [shape=box, style="filled, rounded", color="black", fontname=helvetica] ;
edge [fontname=helvetica] ;
0 [label="marital_status <= 0.5\ngini = 0.36\nsamples = 2129\nvalue = [2562, 788]\nclass = i", fillcolor="#eda876"] ;
1 [label="weekly_workload <= 53.0\ngini = 0.08\nsamples = 717\nvalue = [1091, 47]\nclass = i", fillcolor="#e68642"] ;
0 -> 1 [labeldistance=2.5, labelangle=45, headlabel="True"] ;
2 [label="age <= 29.5\ngini = 0.06\nsamples = 675\nvalue = [1026, 33]\nclass = i", fillcolor="#e6853f"] ;
1 -> 2 ;
3 [label="age <= 27.5\ngini = 0.02\nsamples = 479\nvalue = [741, 7]\nclass = i", fillcolor="#e5823b"] ;
2 -> 3 ;
4 [label="education_period <= 10.5\ngini = 0.01\nsamples = 433\nvalue = [659, 4]\nclass = i", fillcolor="#e5823a"] ;
3 -> 4 ;
5 [label="(...)", fillcolor="#C0C0C0"] ;
4 -> 5 ;
8 [label="(...)", fillcolor="#C0C0C0"] ;
4 -> 8 ;
25 [label="education_period <= 12.0\ngini = 0.07\nsamples = 46\nvalue = [82, 3]\nclass = i", fillcolor="#e68640"] ;
3 -> 25 ;
26 [label="(...)", fillcolor="#C0C0C0"] ;
25 -> 26 ;
27 [label="(...)", fillcolor="#C0C0C0"] ;
25 -> 27 ;
36 [label="weekly_workload <= 41.0\ngini = 0.15\nsamples = 196\nvalue = [285, 26]\nclass = i", fillcolor="#e78c4b"] ;
2 -> 36 ;
37 [label="investment_balance <= 4056.0\ngini = 0.11\nsamples = 153\nvalue = [224, 14]\nclass = i", fillcolor="#e78945"] ;
36 -> 37 ;
38 [label="(...)", fillcolor="#C0C0C0"] ;
37 -> 38 ;
79 [label="(...)", fillcolor="#C0C0C0"] ;
37 -> 79 ;
84 [label="education_period <= 14.5\ngini = 0.27\nsamples = 43\nvalue = [61, 12]\nclass = i", fillcolor="#ea9a60"] ;
36 -> 84 ;
85 [label="(...)", fillcolor="#C0C0C0"] ;
84 -> 85 ;
104 [label="(...)", fillcolor="#C0C0C0"] ;
84 -> 104 ;
105 [label="education_level <= 0.5\ngini = 0.29\nsamples = 42\nvalue = [65, 14]\nclass = i", fillcolor="#eb9c64"] ;
1 -> 105 ;
106 [label="age <= 29.5\ngini = 0.47\nsamples = 11\nvalue = [10, 6]\nclass = i", fillcolor="#f5cdb0"] ;
105 -> 106 ;
107 [label="gini = 0.0\nsamples = 8\nvalue = [10, 0]\nclass = i", fillcolor="#e58139"] ;
106 -> 107 ;
108 [label="gini = 0.0\nsamples = 3\nvalue = [0, 6]\nclass = n", fillcolor="#399de5"] ;
106 -> 108 ;
109 [label="employment_area <= 2.0\ngini = 0.22\nsamples = 31\nvalue = [55, 8]\nclass = i", fillcolor="#e99356"] ;
105 -> 109 ;
110 [label="gini = 0.0\nsamples = 1\nvalue = [0, 1]\nclass = n", fillcolor="#399de5"] ;
109 -> 110 ;
111 [label="investment_balance <= -782.0\ngini = 0.2\nsamples = 30\nvalue = [55, 7]\nclass = i", fillcolor="#e89152"] ;
109 -> 111 ;
112 [label="(...)", fillcolor="#C0C0C0"] ;
111 -> 112 ;
113 [label="(...)", fillcolor="#C0C0C0"] ;
111 -> 113 ;
122 [label="investment_balance <= 7073.5\ngini = 0.45\nsamples = 1412\nvalue = [1471, 741]\nclass = i", fillcolor="#f2c09d"] ;
0 -> 122 [labeldistance=2.5, labelangle=-45, headlabel="False"] ;
123 [label="education_period <= 12.5\ngini = 0.41\nsamples = 1326\nvalue = [1469, 609]\nclass = i", fillcolor="#f0b58b"] ;
122 -> 123 ;
124 [label="investment_balance <= -1794.0\ngini = 0.33\nsamples = 1015\nvalue = [1237, 322]\nclass = i", fillcolor="#eca26d"] ;
123 -> 124 ;
125 [label="investment_balance <= -1989.5\ngini = 0.33\nsamples = 25\nvalue = [7, 26]\nclass = n", fillcolor="#6eb7ec"] ;
124 -> 125 ;
126 [label="(...)", fillcolor="#C0C0C0"] ;
125 -> 126 ;
127 [label="(...)", fillcolor="#C0C0C0"] ;
125 -> 127 ;
132 [label="partnership <= 2.5\ngini = 0.31\nsamples = 990\nvalue = [1230, 296]\nclass = i", fillcolor="#eb9f69"] ;
124 -> 132 ;
133 [label="(...)", fillcolor="#C0C0C0"] ;
132 -> 133 ;
740 [label="(...)", fillcolor="#C0C0C0"] ;
132 -> 740 ;
777 [label="employment_area <= 0.5\ngini = 0.49\nsamples = 311\nvalue = [232, 287]\nclass = n", fillcolor="#d9ecfa"] ;
123 -> 777 ;
778 [label="age <= 40.5\ngini = 0.29\nsamples = 18\nvalue = [23, 5]\nclass = i", fillcolor="#eb9c64"] ;
777 -> 778 ;
779 [label="(...)", fillcolor="#C0C0C0"] ;
778 -> 779 ;
780 [label="(...)", fillcolor="#C0C0C0"] ;
778 -> 780 ;
787 [label="investment_balance <= -1881.5\ngini = 0.49\nsamples = 293\nvalue = [209, 282]\nclass = n", fillcolor="#cce6f8"] ;
777 -> 787 ;
788 [label="(...)", fillcolor="#C0C0C0"] ;
787 -> 788 ;
793 [label="(...)", fillcolor="#C0C0C0"] ;
787 -> 793 ;
1054 [label="education_period <= 9.5\ngini = 0.03\nsamples = 86\nvalue = [2, 132]\nclass = n", fillcolor="#3c9ee5"] ;
122 -> 1054 ;
1055 [label="investment_balance <= 9976.0\ngini = 0.12\nsamples = 18\nvalue = [2, 29]\nclass = n", fillcolor="#47a4e7"] ;
1054 -> 1055 ;
1056 [label="gini = 0.0\nsamples = 12\nvalue = [0, 21]\nclass = n", fillcolor="#399de5"] ;
1055 -> 1056 ;
1057 [label="partnership <= 1.5\ngini = 0.32\nsamples = 6\nvalue = [2, 8]\nclass = n", fillcolor="#6ab6ec"] ;
1055 -> 1057 ;
1058 [label="(...)", fillcolor="#C0C0C0"] ;
1057 -> 1058 ;
1061 [label="(...)", fillcolor="#C0C0C0"] ;
1057 -> 1061 ;
1062 [label="gini = 0.0\nsamples = 68\nvalue = [0, 103]\nclass = n", fillcolor="#399de5"] ;
1054 -> 1062 ;
}